{
  "fitness": 0.9117331504821777,
  "w1": [
    [
      -1.177910327911377,
      0.2948801815509796,
      1.0375864505767822,
      0.3950803875923157,
      -0.15399977564811707,
      0.5297766923904419,
      -0.6907021403312683,
      0.6447756290435791,
      -0.3600674569606781,
      -0.8624162077903748,
      -1.6345990896224976,
      0.028778884559869766,
      -0.19320756196975708,
      -0.5050773620605469,
      0.7772568464279175,
      0.15817773342132568,
      0.6294532418251038,
      -0.6899843215942383,
      -0.9391937851905823,
      1.2643083333969116,
      -0.14101038873195648,
      0.5929471850395203,
      0.3671320676803589,
      0.1532808244228363,
      0.8020308017730713,
      -0.6916075944900513,
      0.6986276507377625,
      0.6195951104164124,
      -0.16426987946033478,
      -0.2742236256599426,
      0.5987144708633423,
      0.1724773496389389
    ],
    [
      1.3468446731567383,
      -1.223397135734558,
      0.602459728717804,
      0.6721274256706238,
      -0.7721037268638611,
      0.7790030241012573,
      -0.3601277470588684,
      0.7918751835823059,
      -0.22881296277046204,
      0.8655747175216675,
      0.3268519639968872,
      0.3316267132759094,
      -0.15536388754844666,
      -0.2802167236804962,
      0.9334988594055176,
      0.8727461099624634,
      -1.051089882850647,
      -0.38580742478370667,
      -0.3542987108230591,
      0.1563638150691986,
      -0.2638069987297058,
      0.1911735236644745,
      -0.2740621268749237,
      -0.49074479937553406,
      1.0118508338928223,
      0.44022664427757263,
      0.23748359084129333,
      0.795012354850769,
      1.1786757707595825,
      -1.3748520612716675,
      1.497408390045166,
      -0.36094194650650024
    ],
    [
      0.7252393364906311,
      0.378426730632782,
      0.09407220780849457,
      1.9384950399398804,
      0.7057356834411621,
      1.660904049873352,
      0.19537702202796936,
      -1.4925464391708374,
      1.3554631471633911,
      0.30291077494621277,
      -2.3140761852264404,
      1.6653224229812622,
      -1.3620699644088745,
      -0.29563823342323303,
      0.7434890866279602,
      0.4439358413219452,
      -2.095517873764038,
      0.9464483857154846,
      -2.797454595565796,
      1.1692694425582886,
      1.3509511947631836,
      -1.3136659860610962,
      -0.7793847322463989,
      -1.2830662727355957,
      -0.16893503069877625,
      -1.2768713235855103,
      0.8578075766563416,
      0.8351658582687378,
      1.6063655614852905,
      -0.0852796733379364,
      -0.708105206489563,
      -2.2299609184265137
    ],
    [
      -0.0014301957562565804,
      -0.6110799312591553,
      0.8730993866920471,
      -0.6751463413238525,
      1.1205331087112427,
      -0.6626865267753601,
      -1.128141164779663,
      -0.3849031627178192,
      2.119117021560669,
      0.3214747905731201,
      -0.9637674689292908,
      0.5278748869895935,
      -1.3503642082214355,
      -1.8663959503173828,
      0.7173812985420227,
      -0.5871572494506836,
      -0.877895176410675,
      -0.053445860743522644,
      -1.441672921180725,
      1.3698947429656982,
      -1.0708706378936768,
      -0.3189757764339447,
      -1.1541306972503662,
      0.11613821983337402,
      0.5353659391403198,
      -0.11813768744468689,
      -0.29967406392097473,
      1.330129623413086,
      -0.17271670699119568,
      -0.7889289855957031,
      -0.4226113557815552,
      -0.8592471480369568
    ]
  ],
  "b1": [
    [
      -0.595306396484375,
      0.0441800132393837,
      -0.0200931578874588,
      0.1399839073419571,
      0.06473715603351593,
      -0.0645161122083664,
      0.2683175504207611,
      0.007656623609364033,
      0.4949341416358948,
      -0.061828382313251495,
      -0.029687557369470596,
      -0.041964996606111526,
      -0.12137531489133835,
      -0.2020680010318756,
      -1.0999157428741455,
      -0.7621656060218811,
      -0.08383367955684662,
      0.3517697751522064,
      -0.17769774794578552,
      0.052117832005023956,
      0.6005354523658752,
      -0.3440982401371002,
      -0.6933013200759888,
      -0.2061510533094406,
      -0.38188982009887695,
      -0.08584274351596832,
      0.381523460149765,
      -0.5406084656715393,
      0.19522269070148468,
      -1.5811153650283813,
      -0.13605420291423798,
      0.20730486512184143
    ]
  ],
  "w2": [
    [
      -0.022979123517870903,
      0.49953073263168335,
      0.10167534649372101,
      0.39093032479286194,
      -0.32774055004119873,
      -0.10629987716674805,
      -0.30788668990135193,
      -1.0628629922866821,
      1.6198793649673462,
      -0.7437242269515991,
      -1.5633717775344849,
      1.1043227910995483,
      0.05056995898485184,
      -0.4726770222187042,
      0.19371433556079865,
      1.606154441833496,
      -0.17650222778320312,
      0.32785916328430176,
      -0.6627557873725891,
      0.4067087471485138,
      -0.31863003969192505,
      0.3780055344104767,
      -0.004783906042575836,
      -1.426877498626709,
      -0.19429178535938263,
      -0.6199840307235718,
      -0.14993681013584137,
      -0.12568026781082153,
      1.160748839378357,
      -0.12041157484054565,
      -0.5687322616577148,
      -0.7138790488243103
    ],
    [
      -0.4702019691467285,
      0.5365302562713623,
      0.09077290445566177,
      -0.37858301401138306,
      -0.2713983654975891,
      -0.13442525267601013,
      -0.4111628830432892,
      0.7938546538352966,
      1.15938138961792,
      0.801741898059845,
      -0.07603283226490021,
      0.12588202953338623,
      0.14635810256004333,
      0.8667909502983093,
      0.8340325951576233,
      -0.6859458684921265,
      0.5977358222007751,
      -0.41464242339134216,
      -0.2739471197128296,
      -0.029346484690904617,
      -0.01623920165002346,
      -0.317167729139328,
      0.09497669339179993,
      0.6549288034439087,
      -0.7165514230728149,
      0.6526362895965576,
      0.24288174510002136,
      -1.1302878856658936,
      0.7123302817344666,
      0.8508731722831726,
      0.9641498327255249,
      0.26889726519584656
    ],
    [
      0.8929661512374878,
      -0.13567984104156494,
      -0.30396753549575806,
      0.4714888334274292,
      -0.14186304807662964,
      -0.35564717650413513,
      -0.2093144953250885,
      1.701476812362671,
      0.22959181666374207,
      0.4691895544528961,
      -0.6624539494514465,
      -0.056932419538497925,
      -0.6741617918014526,
      -0.048274580389261246,
      -0.013219773769378662,
      0.16215474903583527,
      0.28878915309906006,
      -0.22557654976844788,
      -0.14155089855194092,
      0.9624374508857727,
      -0.06990055739879608,
      -0.5411683917045593,
      0.07081305235624313,
      0.15095943212509155,
      -0.3243902027606964,
      0.774492621421814,
      0.034890253096818924,
      0.6106976866722107,
      0.02073705568909645,
      -0.5886465907096863,
      0.6120411157608032,
      -0.4164345860481262
    ],
    [
      0.8209322690963745,
      -1.13579261302948,
      0.44330328702926636,
      0.2540469765663147,
      0.858612596988678,
      0.438226580619812,
      -0.17413796484470367,
      -0.05218755081295967,
      1.1104387044906616,
      -1.4284648895263672,
      -0.3374338448047638,
      0.00892791897058487,
      2.1088645458221436,
      -0.2594207525253296,
      1.1459804773330688,
      0.16938947141170502,
      -0.5502827167510986,
      0.12097547948360443,
      0.1782204508781433,
      0.8008281588554382,
      0.38836240768432617,
      -0.14918768405914307,
      -0.07930027693510056,
      -0.2984817624092102,
      0.8771940469741821,
      0.015503449365496635,
      -1.7562202215194702,
      0.21231915056705475,
      -0.15087085962295532,
      0.5061315298080444,
      -0.2507999837398529,
      -0.28698477149009705
    ],
    [
      0.46751242876052856,
      0.8559682369232178,
      0.30966290831565857,
      1.5415650606155396,
      -0.37734198570251465,
      0.22625401616096497,
      1.2755743265151978,
      0.8082465529441833,
      -0.1284986287355423,
      -0.40042439103126526,
      -0.5349937677383423,
      -0.6096329092979431,
      1.8465923070907593,
      -0.5511370897293091,
      0.29705268144607544,
      0.4881470501422882,
      -0.04064515233039856,
      -1.423279047012329,
      0.2299996018409729,
      0.4556197226047516,
      -0.21078114211559296,
      -0.01425679586827755,
      -1.623834252357483,
      0.17626161873340607,
      0.3739902973175049,
      0.12765884399414062,
      0.7148858308792114,
      -1.203615665435791,
      -0.485117644071579,
      0.9505806565284729,
      -0.23311805725097656,
      0.3558294177055359
    ],
    [
      1.2105051279067993,
      0.2806722819805145,
      0.6931208968162537,
      -0.22165946662425995,
      -0.15598079562187195,
      0.8335520029067993,
      -0.9845519661903381,
      -0.5810897946357727,
      1.4921751022338867,
      -0.22804749011993408,
      -0.9213793277740479,
      -0.05259839817881584,
      1.1233636140823364,
      0.0020088478922843933,
      0.34390002489089966,
      0.9882591962814331,
      1.2030543088912964,
      0.7971257567405701,
      1.2055175304412842,
      0.3805897831916809,
      -0.07865589112043381,
      -0.14627204835414886,
      0.1692405641078949,
      0.3644361197948456,
      0.8586190342903137,
      -0.8788225650787354,
      -0.3247273564338684,
      0.21992601454257965,
      0.15517346560955048,
      0.32748857140541077,
      -0.5508065223693848,
      0.7691860198974609
    ],
    [
      -0.5589876174926758,
      -0.5689859986305237,
      1.7989861965179443,
      1.735761284828186,
      -0.5521571040153503,
      0.3549683690071106,
      0.304774671792984,
      -0.024420281872153282,
      0.3985297977924347,
      0.9665542244911194,
      -0.39151889085769653,
      -1.7870151996612549,
      0.21890580654144287,
      0.2033916711807251,
      -0.5279194116592407,
      -0.526395320892334,
      1.2819887399673462,
      0.15234406292438507,
      0.20594099164009094,
      1.1584290266036987,
      0.37146005034446716,
      0.08318830281496048,
      1.4492723941802979,
      1.0730676651000977,
      -0.08848972618579865,
      0.8824093341827393,
      0.8226343393325806,
      -0.17879712581634521,
      0.6245811581611633,
      -0.2807050943374634,
      -1.204682469367981,
      1.097759485244751
    ],
    [
      -0.8437009453773499,
      0.5827972888946533,
      -0.4546033442020416,
      0.3082675635814667,
      -0.6684504151344299,
      -0.412555992603302,
      0.4059678912162781,
      -0.41873520612716675,
      -1.0054019689559937,
      0.7022342085838318,
      0.1448058933019638,
      -0.3542814552783966,
      -0.49219539761543274,
      -0.2514955401420593,
      -1.6850817203521729,
      -0.3963927626609802,
      0.4276733696460724,
      -0.3826051354408264,
      0.13257019221782684,
      -0.3729549050331116,
      0.690787672996521,
      -0.042579710483551025,
      -0.7466686367988586,
      0.4419473707675934,
      -0.24221906065940857,
      -0.13681906461715698,
      0.6170676946640015,
      -0.08939306437969208,
      -0.05655156448483467,
      0.24616096913814545,
      0.5653464198112488,
      0.15450264513492584
    ],
    [
      0.27523699402809143,
      -1.6509480476379395,
      0.5446166396141052,
      0.3312617242336273,
      -0.07770916819572449,
      0.5179614424705505,
      -0.12212828546762466,
      -0.17451636493206024,
      0.17450779676437378,
      -0.49810129404067993,
      -0.0922323614358902,
      0.658595621585846,
      -0.08766888082027435,
      -0.06666090339422226,
      -0.4597565829753876,
      1.1841551065444946,
      -0.7909119725227356,
      -0.3350479304790497,
      0.5959509611129761,
      -0.05221238359808922,
      0.10863171517848969,
      -0.018081480637192726,
      0.11774130165576935,
      0.2929162383079529,
      0.5383893847465515,
      -0.17882922291755676,
      -0.27166950702667236,
      -0.23887524008750916,
      0.08518248796463013,
      -0.1262805461883545,
      1.1847366094589233,
      -1.3848607540130615
    ],
    [
      -0.27968883514404297,
      -0.7408744096755981,
      0.5995284914970398,
      0.7722173929214478,
      1.0734851360321045,
      -0.9230465292930603,
      0.2739185392856598,
      -0.6727064251899719,
      -0.05546609312295914,
      -0.11671264469623566,
      -1.5195205211639404,
      0.6635596752166748,
      -0.25202488899230957,
      1.6458685398101807,
      -0.5890644788742065,
      0.037760816514492035,
      -0.07593297213315964,
      0.7028350830078125,
      1.29639732837677,
      -0.028925059363245964,
      2.3983678817749023,
      -0.7880223989486694,
      0.3267630636692047,
      -0.40727564692497253,
      0.7619859576225281,
      0.5637847781181335,
      -0.6016488075256348,
      0.9102404117584229,
      0.7251811623573303,
      0.5140147805213928,
      -0.7969435453414917,
      0.6698485016822815
    ],
    [
      0.43941885232925415,
      0.7136483192443848,
      -0.4965873658657074,
      -2.1370627880096436,
      -0.8478792905807495,
      0.2973254919052124,
      0.8616415858268738,
      0.5979487895965576,
      1.1219252347946167,
      0.5501007437705994,
      0.20615258812904358,
      1.5233485698699951,
      -0.1192396730184555,
      -0.6580929756164551,
      -1.0618025064468384,
      -1.6329056024551392,
      0.06240621954202652,
      -0.2607322931289673,
      -0.672356367111206,
      -0.7895236015319824,
      -0.39521658420562744,
      1.8711870908737183,
      0.5750335454940796,
      0.35656988620758057,
      -1.386193871498108,
      -0.4929124116897583,
      1.0878987312316895,
      2.181286334991455,
      0.2941358983516693,
      0.26234346628189087,
      0.608953595161438,
      0.15132848918437958
    ],
    [
      -0.9914467334747314,
      0.4668571949005127,
      0.005469173192977905,
      -1.4925779104232788,
      0.0879768580198288,
      0.5626216530799866,
      -0.27840596437454224,
      -0.5635964870452881,
      0.15980912744998932,
      0.028886869549751282,
      -0.8956542015075684,
      -0.8409285545349121,
      -0.3851540982723236,
      1.0113714933395386,
      0.6499371528625488,
      -0.16683128476142883,
      0.04556746780872345,
      0.5139040946960449,
      -1.1175975799560547,
      1.6239968538284302,
      0.745140790939331,
      -0.5117461085319519,
      -0.8979406356811523,
      0.5078458786010742,
      0.06721580028533936,
      -0.2163769006729126,
      -1.0723530054092407,
      0.293357789516449,
      -0.5217331051826477,
      -0.11567247658967972,
      -1.0712276697158813,
      -0.3175751864910126
    ],
    [
      0.6562855243682861,
      0.9422391057014465,
      -0.23227459192276,
      1.8173288106918335,
      0.1106846034526825,
      0.6871542930603027,
      0.20578321814537048,
      -0.32464486360549927,
      1.3679934740066528,
      0.4632108211517334,
      0.0357237309217453,
      0.7042552828788757,
      1.2342150211334229,
      -1.4264490604400635,
      0.5235546827316284,
      -0.26776596903800964,
      -0.5115001201629639,
      0.05480659008026123,
      1.287453293800354,
      -0.00572533905506134,
      -0.47722744941711426,
      0.07754051685333252,
      -0.5053333640098572,
      1.2845410108566284,
      0.2551485300064087,
      0.16561710834503174,
      0.5867396593093872,
      0.6806561350822449,
      -0.3307141959667206,
      -0.22433194518089294,
      0.5502274036407471,
      -0.27908962965011597
    ],
    [
      -0.9344696998596191,
      -0.3951573073863983,
      -0.22178934514522552,
      1.4263174533843994,
      0.8428469896316528,
      0.5087754130363464,
      0.15311041474342346,
      -0.869604229927063,
      -0.11221934109926224,
      -0.8248134255409241,
      0.2426108717918396,
      0.026371967047452927,
      -1.258980631828308,
      -0.3374333083629608,
      0.8622868061065674,
      -0.38572075963020325,
      -0.39862197637557983,
      -0.06317516416311264,
      0.21329189836978912,
      -1.1142420768737793,
      -0.15090200304985046,
      0.053696732968091965,
      -1.9556597471237183,
      -0.5504855513572693,
      -0.052628468722105026,
      0.13193151354789734,
      0.6277720332145691,
      0.5266761183738708,
      1.0711135864257812,
      0.2133462131023407,
      -1.0564796924591064,
      -0.747582197189331
    ],
    [
      -0.6124288439750671,
      -0.43557170033454895,
      -1.2860958576202393,
      0.5498979091644287,
      0.6580560207366943,
      0.579658567905426,
      -0.46683236956596375,
      -1.3609050512313843,
      -1.233421802520752,
      0.04961663484573364,
      1.1143593788146973,
      0.3942320942878723,
      0.5879991054534912,
      -0.28994718194007874,
      -1.69878351688385,
      1.2575328350067139,
      1.6428861618041992,
      0.7595842480659485,
      -0.23830991983413696,
      -0.07910476624965668,
      -0.7653545141220093,
      -0.16485968232154846,
      0.7593125700950623,
      0.10770019143819809,
      0.012876570224761963,
      0.40206795930862427,
      0.6546703577041626,
      -0.5765281915664673,
      0.3101727366447449,
      0.8752827644348145,
      0.3803653419017792,
      0.03134092688560486
    ],
    [
      0.9035890102386475,
      0.23157422244548798,
      0.32018715143203735,
      -0.22084322571754456,
      0.6435668468475342,
      0.34024330973625183,
      0.5895966291427612,
      -0.7545782327651978,
      -0.773809015750885,
      -0.19630037248134613,
      -0.07056573033332825,
      0.8578619360923767,
      0.10928653180599213,
      0.7891802191734314,
      0.42996910214424133,
      -0.3517637252807617,
      0.472526490688324,
      0.9970422983169556,
      -0.03739133104681969,
      0.2925047278404236,
      -0.6717798709869385,
      0.524965226650238,
      -0.6250535845756531,
      -0.6396416425704956,
      1.6502312421798706,
      0.1264648735523224,
      0.2857411801815033,
      -0.46796077489852905,
      -1.3073174953460693,
      -0.6212577223777771,
      -1.0488938093185425,
      -0.47164517641067505
    ],
    [
      1.0028051137924194,
      0.23019728064537048,
      -0.23102813959121704,
      1.0323200225830078,
      -0.4723169207572937,
      -0.6855770349502563,
      0.3158431053161621,
      1.1810740232467651,
      0.09620402753353119,
      0.2563939392566681,
      0.5561575889587402,
      1.6163060665130615,
      -0.8595462441444397,
      -0.6964046359062195,
      -1.1122838258743286,
      -0.8418781757354736,
      1.098202109336853,
      -0.5780157446861267,
      -0.11436191201210022,
      -1.2929959297180176,
      -2.2051000595092773,
      -0.34130197763442993,
      -1.1981476545333862,
      1.120469331741333,
      -1.2112290859222412,
      0.8267939686775208,
      0.8417176008224487,
      1.1838669776916504,
      0.752794623374939,
      0.6740851402282715,
      0.009178973734378815,
      1.5402283668518066
    ],
    [
      -0.3495866358280182,
      0.3507078289985657,
      0.6270301342010498,
      -0.19526562094688416,
      0.09764616191387177,
      -1.0647891759872437,
      0.051679279655218124,
      0.6546350121498108,
      -0.5391038656234741,
      -0.2561182379722595,
      -0.18738175928592682,
      0.5695436000823975,
      0.09793494641780853,
      -0.014464177191257477,
      0.737285315990448,
      0.5869901776313782,
      0.463967889547348,
      -1.3713089227676392,
      0.6613561511039734,
      -0.044834040105342865,
      -0.9014768600463867,
      0.08035150170326233,
      -0.4868136942386627,
      -0.8741798996925354,
      0.42668887972831726,
      -0.5049542784690857,
      0.475912481546402,
      -1.1490039825439453,
      -0.6517542004585266,
      2.123302698135376,
      0.24262113869190216,
      -0.08373761177062988
    ],
    [
      0.9480563998222351,
      2.093834638595581,
      -1.3172158002853394,
      0.47656312584877014,
      -0.04511314257979393,
      -0.2254791557788849,
      0.34425318241119385,
      0.6085277795791626,
      0.9133611917495728,
      0.18940746784210205,
      -0.3224231004714966,
      0.0874750018119812,
      -1.3936651945114136,
      0.05003204941749573,
      0.27828872203826904,
      -1.5236526727676392,
      -0.024472933262586594,
      0.7970618605613708,
      1.0408039093017578,
      -0.8233647346496582,
      -0.9462856650352478,
      -0.46184223890304565,
      1.5105992555618286,
      0.26700374484062195,
      -1.173862338066101,
      0.2620762288570404,
      1.5531915426254272,
      1.1815621852874756,
      0.9529367685317993,
      -1.3857210874557495,
      0.2789781093597412,
      -0.4294709861278534
    ],
    [
      0.591224730014801,
      -0.36946621537208557,
      -0.12879548966884613,
      -0.05424439162015915,
      1.5281083583831787,
      0.5456533432006836,
      -0.8328044414520264,
      0.501910924911499,
      -1.6099905967712402,
      -1.4409011602401733,
      -0.7734575867652893,
      0.31741654872894287,
      1.2991466522216797,
      -0.08316290378570557,
      -0.45541858673095703,
      0.13413824141025543,
      0.49288827180862427,
      1.308390736579895,
      -0.0024517218116670847,
      0.6098564267158508,
      1.9572674036026,
      2.7731125354766846,
      -0.3239856958389282,
      0.18828605115413666,
      -1.023239016532898,
      0.2606236934661865,
      0.7404002547264099,
      -1.2741941213607788,
      -0.3551061153411865,
      0.9999574422836304,
      0.07847180962562561,
      0.1201067715883255
    ],
    [
      -0.4887034296989441,
      -0.2233864963054657,
      0.2890971899032593,
      0.20294344425201416,
      1.228319764137268,
      0.6488795280456543,
      0.1407133787870407,
      0.7525842189788818,
      0.6637124419212341,
      -0.6327334046363831,
      -0.9468826651573181,
      0.14102156460285187,
      -0.11377774178981781,
      0.799788236618042,
      0.7551255822181702,
      0.18753831088542938,
      -1.2126827239990234,
      1.1562716960906982,
      0.6061915159225464,
      0.47221967577934265,
      -0.695318341255188,
      -1.4458366632461548,
      -0.19420824944972992,
      -0.2676621675491333,
      -0.9854744672775269,
      0.37021443247795105,
      0.48040351271629333,
      0.14144545793533325,
      0.4772905111312866,
      -0.0475880466401577,
      0.6584372520446777,
      -0.8433398604393005
    ],
    [
      0.4019814431667328,
      1.3630152940750122,
      0.08436635136604309,
      0.4233657419681549,
      -1.7115789651870728,
      0.36364471912384033,
      0.08930157124996185,
      -0.18666082620620728,
      0.36932387948036194,
      0.0008667241781949997,
      -0.21304823458194733,
      -1.4356919527053833,
      -0.05863744765520096,
      1.1809512376785278,
      0.6839745044708252,
      -0.21802639961242676,
      0.2149311900138855,
      -0.5366050004959106,
      0.8738061785697937,
      1.1694501638412476,
      -1.2639391422271729,
      0.4956093430519104,
      0.5551068782806396,
      -0.819187581539154,
      1.0963997840881348,
      -0.22719989717006683,
      -1.5389918088912964,
      -0.6009165048599243,
      0.8110227584838867,
      -1.042433738708496,
      0.20523543655872345,
      -1.0843605995178223
    ],
    [
      -0.8665239214897156,
      -0.539652407169342,
      -0.042378395795822144,
      -0.5167249441146851,
      0.3241875469684601,
      -1.3423635959625244,
      0.024361202493309975,
      -0.4583105146884918,
      0.6368486881256104,
      -0.05432690307497978,
      -1.3317533731460571,
      -0.263752818107605,
      0.8794883489608765,
      1.0403921604156494,
      -0.5923709273338318,
      0.5746886134147644,
      1.0581501722335815,
      1.121289610862732,
      -1.139451026916504,
      -0.06229116767644882,
      0.8635693192481995,
      -0.1897904872894287,
      -0.5980659127235413,
      1.3617357015609741,
      0.6535093188285828,
      0.4690723717212677,
      0.14331980049610138,
      0.2717501223087311,
      0.49899014830589294,
      -0.44160202145576477,
      -0.24928732216358185,
      -0.6574613451957703
    ],
    [
      1.6073713302612305,
      -0.6681350469589233,
      -0.5336942672729492,
      -0.05065085366368294,
      -0.5149164199829102,
      0.9120952486991882,
      0.2630939185619354,
      0.42015865445137024,
      -1.029651403427124,
      0.15451598167419434,
      0.1870662271976471,
      0.2402486503124237,
      0.5613494515419006,
      -1.1007567644119263,
      -0.022712545469403267,
      -1.1629270315170288,
      0.7416204810142517,
      0.9163802862167358,
      0.6072073578834534,
      -0.2988360822200775,
      0.25830894708633423,
      -0.3501419425010681,
      0.36285388469696045,
      0.15227629244327545,
      0.1930517852306366,
      2.2683396339416504,
      -0.12922881543636322,
      0.3780399262905121,
      0.23649722337722778,
      -0.8436060547828674,
      0.7067750096321106,
      -0.7591027021408081
    ],
    [
      0.9544505476951599,
      -1.0152667760849,
      -1.120237112045288,
      -1.2195870876312256,
      0.2050963193178177,
      0.8015422821044922,
      0.9062856435775757,
      0.9079434275627136,
      0.20448990166187286,
      0.6067389845848083,
      0.48421424627304077,
      -0.5733466148376465,
      1.2222295999526978,
      0.3433206379413605,
      0.7775868773460388,
      -0.9158445596694946,
      0.7248309850692749,
      -0.20211352407932281,
      1.6641943454742432,
      0.756691038608551,
      -1.0014415979385376,
      1.6072685718536377,
      -0.8194712400436401,
      -0.3289700448513031,
      -0.3033604025840759,
      1.960649847984314,
      -1.8575420379638672,
      0.3329172134399414,
      -0.6139863133430481,
      -1.1403144598007202,
      1.2499830722808838,
      -1.2883504629135132
    ],
    [
      0.686616063117981,
      0.3157924711704254,
      0.5594308376312256,
      1.2749906778335571,
      0.1686774045228958,
      -0.8103758096694946,
      0.3315701186656952,
      -0.28123533725738525,
      -0.221471905708313,
      -0.5480920076370239,
      -0.8926487565040588,
      -0.01709573343396187,
      1.4371281862258911,
      1.561563491821289,
      -0.2616548538208008,
      -2.255875587463379,
      0.22528986632823944,
      0.8006464242935181,
      0.054864369332790375,
      -0.5135716199874878,
      -1.1724625825881958,
      0.3501776158809662,
      0.14530017971992493,
      -0.6585996150970459,
      -0.1931610107421875,
      -0.6989906430244446,
      1.2036553621292114,
      0.32374992966651917,
      -1.196751594543457,
      1.6702430248260498,
      -0.1842700093984604,
      -0.09225647151470184
    ],
    [
      -0.21036767959594727,
      -0.6604916453361511,
      0.09411159157752991,
      -0.04519011080265045,
      0.6391042470932007,
      -0.8981461524963379,
      1.258261799812317,
      0.05176987126469612,
      0.3918221592903137,
      -1.007807970046997,
      0.678017795085907,
      -0.05903162807226181,
      -0.018639998510479927,
      0.39723581075668335,
      0.4707816243171692,
      0.35289767384529114,
      -0.6427465677261353,
      0.2453501671552658,
      0.19321414828300476,
      0.9843478798866272,
      0.9133918881416321,
      -0.7380917072296143,
      0.7952120900154114,
      0.5456239581108093,
      0.5451704263687134,
      0.535142719745636,
      0.011524684727191925,
      -1.1072756052017212,
      -0.11149922758340836,
      -0.44964781403541565,
      0.44937992095947266,
      0.8032628297805786
    ],
    [
      0.5191325545310974,
      0.1801421046257019,
      -1.4831533432006836,
      -1.424060583114624,
      0.948280930519104,
      -0.7184236645698547,
      0.6103819608688354,
      -0.6527778506278992,
      -0.028391985222697258,
      0.14292362332344055,
      0.42577701807022095,
      0.33467769622802734,
      0.020163871347904205,
      1.095882773399353,
      0.4949026107788086,
      0.8115520477294922,
      1.61143958568573,
      0.6280589699745178,
      -0.49305641651153564,
      1.0037387609481812,
      1.1677309274673462,
      -0.07034353911876678,
      0.821930468082428,
      0.21269842982292175,
      0.25379064679145813,
      -1.277098536491394,
      -0.863685131072998,
      -0.18821580708026886,
      0.5452608466148376,
      0.399742066860199,
      0.4100743532180786,
      1.3675154447555542
    ],
    [
      -2.1420350074768066,
      -0.3372701406478882,
      0.028169656172394753,
      0.5680604577064514,
      0.5285549163818359,
      -0.7745106816291809,
      -0.3695768415927887,
      0.1392807960510254,
      1.1873303651809692,
      -0.1539580374956131,
      0.2650110721588135,
      -0.07207606732845306,
      2.7286901473999023,
      -0.4986557960510254,
      0.08191223442554474,
      0.8579760789871216,
      -0.24234797060489655,
      1.1557846069335938,
      0.12496757507324219,
      0.9875440001487732,
      1.0722825527191162,
      -0.23878130316734314,
      -0.7312990427017212,
      0.17298270761966705,
      0.08749271929264069,
      0.4002194106578827,
      -1.113670825958252,
      -0.6492296457290649,
      -1.2924108505249023,
      -0.6649458408355713,
      -0.03774108737707138,
      0.9971705675125122
    ],
    [
      -0.16016733646392822,
      -0.3719344735145569,
      -1.0022772550582886,
      -1.1273964643478394,
      -0.08807173371315002,
      -0.013620492070913315,
      0.20879867672920227,
      0.41468262672424316,
      -1.5498749017715454,
      0.03189883008599281,
      -0.9840424656867981,
      -1.7815362215042114,
      -0.7860248684883118,
      -1.3119838237762451,
      -1.3861700296401978,
      -0.20971819758415222,
      0.10086214542388916,
      0.6481950283050537,
      0.22715570032596588,
      -0.06970302760601044,
      -0.1811627596616745,
      2.1999716758728027,
      0.13806837797164917,
      -0.1891355812549591,
      -1.018319010734558,
      -0.961369514465332,
      -0.016550874337553978,
      0.27519553899765015,
      0.3846423327922821,
      -0.5536598563194275,
      0.9849012494087219,
      -1.554900050163269
    ],
    [
      -0.6823837757110596,
      0.052954234182834625,
      -0.4856211543083191,
      1.0721052885055542,
      -0.9140257239341736,
      0.03791975975036621,
      1.0423296689987183,
      0.9492679238319397,
      -0.45796844363212585,
      -0.34065017104148865,
      0.5378254055976868,
      -0.4360245168209076,
      0.9994246959686279,
      -0.2902754843235016,
      0.4403139650821686,
      1.0516480207443237,
      0.212115079164505,
      0.3368544280529022,
      0.313327819108963,
      -1.5154916048049927,
      0.10101566463708878,
      0.6266264915466309,
      -0.6843544840812683,
      1.5743334293365479,
      -0.2383819967508316,
      0.2510835826396942,
      1.2139880657196045,
      -0.07454928010702133,
      0.35465312004089355,
      0.23020675778388977,
      -0.3169751763343811,
      -0.1026238277554512
    ],
    [
      -0.14190605282783508,
      1.2148988246917725,
      -0.05959431827068329,
      -0.8792702555656433,
      -0.9309587478637695,
      -1.2923506498336792,
      0.2766602635383606,
      1.5746098756790161,
      -1.1005332469940186,
      0.8647462129592896,
      0.29096531867980957,
      1.1607342958450317,
      -1.2524116039276123,
      -1.4458976984024048,
      1.2915763854980469,
      0.30087751150131226,
      -0.16108103096485138,
      -0.15605315566062927,
      0.07294338941574097,
      -0.939235508441925,
      -1.3010764122009277,
      -1.0307284593582153,
      -1.1159344911575317,
      0.13799355924129486,
      0.002541791647672653,
      0.3109514117240906,
      0.8200779557228088,
      1.2113415002822876,
      2.095344305038452,
      -0.9245100021362305,
      -0.5165722370147705,
      0.32378581166267395
    ]
  ],
  "b2": [
    [
      0.26324528455734253,
      0.4262300133705139,
      -0.5237353444099426,
      -0.4080963730812073,
      0.013254587538540363,
      0.8228227496147156,
      0.48246413469314575,
      0.37935158610343933,
      0.3257671594619751,
      0.6291781067848206,
      -0.7131053805351257,
      -1.418704867362976,
      0.08949265629053116,
      0.3668178617954254,
      -0.15156784653663635,
      0.07016654312610626,
      0.8058753609657288,
      -0.2586266100406647,
      0.09750137478113174,
      -0.4558533728122711,
      -1.2581877708435059,
      -0.897601306438446,
      -0.46040183305740356,
      0.5565890669822693,
      0.380547434091568,
      -0.4701790511608124,
      -0.7106656432151794,
      0.7675724625587463,
      0.5640031099319458,
      -0.07934343814849854,
      -1.7296503782272339,
      1.2075923681259155
    ]
  ],
  "w3": [
    [
      -0.2760036587715149,
      -0.3224169611930847
    ],
    [
      1.1522424221038818,
      -1.6695524454116821
    ],
    [
      -0.7995406985282898,
      -0.37119385600090027
    ],
    [
      1.2985689640045166,
      -0.9396196007728577
    ],
    [
      -0.9959936141967773,
      1.75284743309021
    ],
    [
      0.4807320535182953,
      -0.008677970618009567
    ],
    [
      0.12925609946250916,
      -1.7994338274002075
    ],
    [
      -0.46632421016693115,
      0.2123091071844101
    ],
    [
      -0.20000284910202026,
      0.7465716004371643
    ],
    [
      0.9337812662124634,
      -1.928406834602356
    ],
    [
      -0.3013509511947632,
      -0.22126935422420502
    ],
    [
      1.3081656694412231,
      -0.9687609672546387
    ],
    [
      -1.5206459760665894,
      1.33620285987854
    ],
    [
      0.058887287974357605,
      1.308971881866455
    ],
    [
      0.07383201271295547,
      0.8862478733062744
    ],
    [
      -2.0238654613494873,
      1.7717920541763306
    ],
    [
      0.20604610443115234,
      -1.376045823097229
    ],
    [
      1.579275131225586,
      0.3910798132419586
    ],
    [
      0.00939043890684843,
      0.39206385612487793
    ],
    [
      -1.301483154296875,
      1.9016990661621094
    ],
    [
      -2.650520086288452,
      1.6327158212661743
    ],
    [
      0.6248350739479065,
      -0.44406047463417053
    ],
    [
      0.3047197163105011,
      -0.7442110776901245
    ],
    [
      0.7358701229095459,
      -0.15431442856788635
    ],
    [
      -0.04244166985154152,
      1.7433371543884277
    ],
    [
      -0.287772536277771,
      -0.5344810485839844
    ],
    [
      2.2329914569854736,
      -2.629395008087158
    ],
    [
      0.8642715811729431,
      -2.6003031730651855
    ],
    [
      0.832344114780426,
      -0.8440755605697632
    ],
    [
      -1.2306078672409058,
      -0.9404261112213135
    ],
    [
      -0.42856451869010925,
      -0.5262953042984009
    ],
    [
      0.9896871447563171,
      -1.0176293849945068
    ]
  ],
  "b3": [
    [
      -0.14703793823719025,
      -1.7789888381958008
    ]
  ]
}
