{
  "fitness": 0.9201026558876038,
  "w1": [
    [
      -1.1212451457977295,
      0.2908868193626404,
      1.0288968086242676,
      0.5358380675315857,
      -0.11484252661466599,
      0.6501896977424622,
      -0.4673706293106079,
      0.41415679454803467,
      -0.3453780710697174,
      -0.9936141967773438,
      -1.7583955526351929,
      -0.07738380134105682,
      -0.005341708660125732,
      -0.5701693892478943,
      0.7829681634902954,
      0.008242037147283554,
      0.6474712491035461,
      -0.8217860460281372,
      -0.8361898064613342,
      1.223421573638916,
      -0.02532058209180832,
      0.7531342506408691,
      0.35665369033813477,
      -0.1824178695678711,
      0.7131653428077698,
      -0.6850413084030151,
      0.6706711053848267,
      0.5329322814941406,
      -0.020772738382220268,
      -0.3406890630722046,
      0.6074947118759155,
      0.1268051713705063
    ],
    [
      1.2304291725158691,
      -1.325177788734436,
      0.4327791929244995,
      0.9106130599975586,
      -0.6667839884757996,
      0.7548397779464722,
      -0.28730887174606323,
      0.8591598272323608,
      -0.11616278439760208,
      0.8846343159675598,
      0.4355044960975647,
      0.3640240728855133,
      -0.17217881977558136,
      -0.12707629799842834,
      0.8200896978378296,
      0.9582428932189941,
      -1.080556035041809,
      -0.5682090520858765,
      -0.41555336117744446,
      0.026731496676802635,
      -0.1500750333070755,
      0.09669890999794006,
      -0.19053564965724945,
      -0.5478861927986145,
      1.2189217805862427,
      0.47063469886779785,
      0.2893465757369995,
      0.8395851850509644,
      1.1728202104568481,
      -1.3056021928787231,
      1.304382562637329,
      -0.21743957698345184
    ],
    [
      0.5700868964195251,
      0.4074951410293579,
      0.03119799867272377,
      1.9425479173660278,
      0.9889722466468811,
      1.5921342372894287,
      0.36496129631996155,
      -1.6542820930480957,
      1.6449378728866577,
      0.30506932735443115,
      -2.7142748832702637,
      1.660529375076294,
      -1.300362229347229,
      -0.524353563785553,
      0.7516196966171265,
      0.5407179594039917,
      -2.347832441329956,
      1.1209466457366943,
      -2.979095458984375,
      1.2307219505310059,
      1.596718192100525,
      -1.2494124174118042,
      -0.6176285743713379,
      -1.3664814233779907,
      -0.19814302027225494,
      -1.4055230617523193,
      0.8593791723251343,
      0.8573406338691711,
      1.5518808364868164,
      -0.10184289515018463,
      -1.0149285793304443,
      -2.225861072540283
    ],
    [
      0.00457523949444294,
      -0.6019726395606995,
      0.9368783235549927,
      -0.6451510190963745,
      1.2618283033370972,
      -0.8118204474449158,
      -1.0648630857467651,
      -0.30800947546958923,
      1.8670518398284912,
      0.3542497754096985,
      -0.9778053760528564,
      0.41225606203079224,
      -1.6256009340286255,
      -1.786444067955017,
      0.8136795163154602,
      -0.5868990421295166,
      -0.9390168190002441,
      -0.0945175364613533,
      -1.6423063278198242,
      1.1617488861083984,
      -1.127467393875122,
      -0.3174681067466736,
      -1.0720083713531494,
      0.27541181445121765,
      0.574638307094574,
      -0.026706568896770477,
      -0.4675801992416382,
      1.4065048694610596,
      -0.3258064091205597,
      -0.7404561042785645,
      -0.4258514642715454,
      -1.0418238639831543
    ]
  ],
  "b1": [
    [
      -0.6483116149902344,
      -0.08585287630558014,
      0.1254037320613861,
      0.13925538957118988,
      0.3634437322616577,
      0.05108725279569626,
      0.16701917350292206,
      -0.11227811872959137,
      0.4400923550128937,
      0.07891257852315903,
      0.1296960413455963,
      -0.053137246519327164,
      -0.08017046749591827,
      -0.25683096051216125,
      -1.0396758317947388,
      -0.7285528779029846,
      -0.13249698281288147,
      0.33504343032836914,
      -0.16144618391990662,
      -0.009959574788808823,
      0.7139725685119629,
      -0.3641360104084015,
      -0.6413920521736145,
      -0.22939006984233856,
      -0.4602973163127899,
      -0.2537306845188141,
      0.34151357412338257,
      -0.4565209448337555,
      0.03883879631757736,
      -1.4679255485534668,
      -0.16683919727802277,
      0.28555092215538025
    ]
  ],
  "w2": [
    [
      0.023046130314469337,
      0.4571898281574249,
      0.007427297532558441,
      0.3105788230895996,
      -0.3275910019874573,
      -0.27540475130081177,
      -0.09900930523872375,
      -1.1787633895874023,
      1.4462305307388306,
      -0.7014710903167725,
      -1.3252438306808472,
      1.0858559608459473,
      -0.061578527092933655,
      -0.48819777369499207,
      0.3647013306617737,
      1.9493218660354614,
      0.020919065922498703,
      0.19560296833515167,
      -0.7025309801101685,
      0.31427299976348877,
      -0.4461670219898224,
      0.39712411165237427,
      -0.1299172192811966,
      -1.5369484424591064,
      -0.08762352913618088,
      -0.4585326313972473,
      -0.20074960589408875,
      -0.31411680579185486,
      1.2589300870895386,
      -0.0659383237361908,
      -0.48871710896492004,
      -0.6508005261421204
    ],
    [
      -0.4365420937538147,
      0.952086329460144,
      0.1146637424826622,
      -0.22581662237644196,
      -0.32338058948516846,
      -0.1323433667421341,
      -0.19486916065216064,
      0.8738377094268799,
      1.0817538499832153,
      0.8421546816825867,
      -0.1875169575214386,
      0.18476620316505432,
      0.2182442992925644,
      0.8195227384567261,
      0.6897443532943726,
      -0.8070796132087708,
      0.3233397305011749,
      -0.42064863443374634,
      -0.2366459220647812,
      -0.05568915605545044,
      -0.0711158737540245,
      -0.36213111877441406,
      0.03501411899924278,
      0.9486979842185974,
      -0.530889093875885,
      0.32715317606925964,
      0.22101762890815735,
      -1.2326788902282715,
      0.8700528740882874,
      1.0142258405685425,
      0.9902545213699341,
      0.1577174812555313
    ],
    [
      0.8511370420455933,
      -0.12461180239915848,
      -0.053690217435359955,
      0.5491663813591003,
      -0.05963492393493652,
      -0.4311618506908417,
      -0.3693734109401703,
      1.571095585823059,
      0.30648258328437805,
      0.517576277256012,
      -0.742206335067749,
      -0.006541748996824026,
      -0.7783564329147339,
      -0.011412836611270905,
      -0.16114754974842072,
      0.18474186956882477,
      0.41133835911750793,
      -0.14089781045913696,
      -0.09131462872028351,
      0.9859538674354553,
      -0.0836460292339325,
      -0.44388189911842346,
      -0.08113688230514526,
      -0.05395852029323578,
      -0.23408208787441254,
      0.8229168057441711,
      -0.028428658843040466,
      0.7729669213294983,
      0.08888734877109528,
      -0.30172836780548096,
      0.8039262890815735,
      -0.37839579582214355
    ],
    [
      0.8268580436706543,
      -1.1602082252502441,
      0.605398952960968,
      0.40555596351623535,
      1.0732465982437134,
      0.44255733489990234,
      -0.08393247425556183,
      0.05872633680701256,
      1.286543846130371,
      -1.5933043956756592,
      -0.3171369433403015,
      -0.0948047935962677,
      1.9860917329788208,
      -0.3117777109146118,
      1.2270386219024658,
      0.23124857246875763,
      -0.5925030708312988,
      0.2044699490070343,
      0.0941559374332428,
      0.9117903113365173,
      0.33151477575302124,
      -0.10211262106895447,
      -0.07213438302278519,
      -0.2809275984764099,
      0.9092533588409424,
      -0.11310166120529175,
      -1.6664764881134033,
      0.01568278856575489,
      -0.3302527666091919,
      0.6363212466239929,
      -0.29086846113204956,
      -0.31002992391586304
    ],
    [
      0.37925201654434204,
      0.7264150977134705,
      0.18893375992774963,
      1.4198917150497437,
      -0.3413655459880829,
      0.190842866897583,
      1.2057985067367554,
      0.9575652480125427,
      -0.04459420591592789,
      -0.47493240237236023,
      -0.6566178798675537,
      -0.6071799397468567,
      1.8696173429489136,
      -0.5702481865882874,
      0.2464270442724228,
      0.42466115951538086,
      -0.05428021773695946,
      -1.455418586730957,
      0.34310436248779297,
      0.44930168986320496,
      -0.3135174810886383,
      -0.04273281991481781,
      -1.6676461696624756,
      0.2857604920864105,
      0.50392746925354,
      0.10237658023834229,
      0.6838136315345764,
      -1.3970798254013062,
      -0.5181230902671814,
      1.0720548629760742,
      -0.37849143147468567,
      0.4760749340057373
    ],
    [
      1.1996197700500488,
      0.3364604115486145,
      0.5881596803665161,
      -0.07463619112968445,
      -0.2739076018333435,
      0.8344605565071106,
      -1.073366403579712,
      -0.550612211227417,
      1.4051330089569092,
      -0.4435276389122009,
      -0.9066376686096191,
      -0.11302827298641205,
      1.1415420770645142,
      0.037322305142879486,
      0.2255174070596695,
      0.9256212711334229,
      1.187316656112671,
      0.8759015798568726,
      1.2538042068481445,
      0.5007725954055786,
      -0.2511101961135864,
      0.04363977164030075,
      0.13365153968334198,
      0.4636811912059784,
      1.0248081684112549,
      -0.8534556031227112,
      -0.4936664402484894,
      0.005551546812057495,
      0.0002839555963873863,
      0.3759450614452362,
      -0.6434088945388794,
      0.8524749875068665
    ],
    [
      -0.6199169158935547,
      -0.3566283583641052,
      1.8398643732070923,
      1.8015354871749878,
      -0.7434191703796387,
      0.510171115398407,
      0.22179201245307922,
      0.06885352730751038,
      0.3820122182369232,
      1.0011709928512573,
      -0.29404470324516296,
      -1.692692518234253,
      0.19191119074821472,
      0.15550372004508972,
      -0.40177735686302185,
      -0.7323033213615417,
      1.1540629863739014,
      0.08066683262586594,
      0.22846700251102448,
      1.1763124465942383,
      0.3699502646923065,
      0.1687789112329483,
      1.2741045951843262,
      1.0881940126419067,
      -0.06995292752981186,
      1.0017021894454956,
      0.6370835304260254,
      -0.42428576946258545,
      0.7029592990875244,
      -0.15783004462718964,
      -1.039322018623352,
      1.3175500631332397
    ],
    [
      -0.914171040058136,
      0.45295265316963196,
      -0.589927613735199,
      0.4381738007068634,
      -0.7435747385025024,
      -0.32704243063926697,
      0.40661317110061646,
      -0.4634939730167389,
      -0.9554409980773926,
      0.8989984393119812,
      0.08424023538827896,
      -0.5861371159553528,
      -0.42131152749061584,
      -0.2511284351348877,
      -1.6038528680801392,
      -0.4956156015396118,
      0.3264003396034241,
      -0.33731454610824585,
      0.012557482346892357,
      -0.2909550666809082,
      0.6623315811157227,
      -0.2003694623708725,
      -0.47805389761924744,
      0.6713331937789917,
      -0.13960126042366028,
      -0.053489040583372116,
      0.6935548186302185,
      -0.20149576663970947,
      -0.26385489106178284,
      0.40308719873428345,
      0.705161452293396,
      0.44983214139938354
    ],
    [
      0.1855878084897995,
      -1.70267653465271,
      0.2742919623851776,
      0.30130600929260254,
      -0.12093554437160492,
      0.46528634428977966,
      -0.2571168541908264,
      -0.04271320998668671,
      0.10350511968135834,
      -0.4301275312900543,
      0.0014115609228610992,
      0.6894649267196655,
      -0.10760173201560974,
      -0.06933285295963287,
      -0.5924433469772339,
      1.1295228004455566,
      -0.8656702637672424,
      -0.44192448258399963,
      0.2934176027774811,
      0.09838564693927765,
      -0.05000831186771393,
      0.14352020621299744,
      0.046326227486133575,
      0.23621591925621033,
      0.588495135307312,
      -0.1160912737250328,
      -0.29679715633392334,
      -0.49709784984588623,
      -0.07451441884040833,
      -0.18896666169166565,
      1.1395419836044312,
      -1.654203176498413
    ],
    [
      -0.5093744397163391,
      -0.8035467267036438,
      0.6751860976219177,
      0.5803689360618591,
      1.0954681634902954,
      -1.0958616733551025,
      0.24850639700889587,
      -0.6156579256057739,
      -0.12540416419506073,
      -0.2789635956287384,
      -1.388751745223999,
      0.8789471387863159,
      -0.38729923963546753,
      1.651170253753662,
      -0.5853385329246521,
      -0.02182236686348915,
      0.0024567199870944023,
      0.9822026491165161,
      1.5386621952056885,
      -0.26043158769607544,
      2.2971715927124023,
      -0.8667842149734497,
      0.3399750888347626,
      -0.39050182700157166,
      0.7744627594947815,
      0.5381609797477722,
      -0.5503474473953247,
      1.0299241542816162,
      0.6907653212547302,
      0.3871842622756958,
      -0.7599676251411438,
      0.6196168661117554
    ],
    [
      0.4997238218784332,
      0.7382199168205261,
      -0.1919126659631729,
      -2.075082302093506,
      -0.8313899040222168,
      0.11224321275949478,
      0.774313747882843,
      0.6479397416114807,
      1.119470238685608,
      0.5663298964500427,
      0.3803160786628723,
      1.1704747676849365,
      -0.19804377853870392,
      -0.8071403503417969,
      -0.951714038848877,
      -1.6509785652160645,
      0.06733432412147522,
      -0.3611745834350586,
      -0.4378390312194824,
      -0.7216362357139587,
      -0.2985142469406128,
      2.122678279876709,
      0.43009400367736816,
      0.525417149066925,
      -1.573272705078125,
      -0.3398610055446625,
      1.2840086221694946,
      1.9924962520599365,
      0.20541389286518097,
      0.5003127455711365,
      0.4671814441680908,
      0.23709622025489807
    ],
    [
      -1.0449861288070679,
      0.4550779163837433,
      -0.13709256052970886,
      -1.6725444793701172,
      0.16324655711650848,
      0.6348569989204407,
      -0.33283716440200806,
      -0.6039161086082458,
      0.15828625857830048,
      0.19079872965812683,
      -0.8612730503082275,
      -0.9429957270622253,
      -0.37382906675338745,
      1.0776621103286743,
      0.663684606552124,
      -0.11170341819524765,
      0.037916526198387146,
      0.3631363809108734,
      -1.2444947957992554,
      1.8410141468048096,
      0.7109053134918213,
      -0.3872396945953369,
      -0.8176809549331665,
      0.28180286288261414,
      -0.025244932621717453,
      -0.2655303478240967,
      -1.3445504903793335,
      0.45366033911705017,
      -0.9089866876602173,
      -0.23333649337291718,
      -1.1275156736373901,
      -0.12011955678462982
    ],
    [
      0.592275857925415,
      1.1022800207138062,
      -0.04968862980604172,
      1.7003891468048096,
      -0.12568578124046326,
      0.5822656750679016,
      0.09593723714351654,
      -0.3434622287750244,
      1.2127575874328613,
      0.47042539715766907,
      0.1565929502248764,
      0.5869066715240479,
      1.3124412298202515,
      -1.6323264837265015,
      0.8913889527320862,
      -0.32175004482269287,
      -0.6702514886856079,
      0.07774742692708969,
      1.1755876541137695,
      -0.09592542052268982,
      -0.6371012330055237,
      0.020978884771466255,
      -0.45899057388305664,
      1.4757473468780518,
      0.2740439176559448,
      0.1288941651582718,
      0.6095568537712097,
      0.8340201377868652,
      -0.09206746518611908,
      -0.3529473543167114,
      0.629633903503418,
      -0.17996376752853394
    ],
    [
      -0.8297262191772461,
      -0.5661656856536865,
      -0.20405322313308716,
      1.4367613792419434,
      0.8608519434928894,
      0.6643460392951965,
      0.3346114158630371,
      -0.8847137093544006,
      0.03478720039129257,
      -0.6755844354629517,
      0.0646117776632309,
      0.05441032350063324,
      -1.5043869018554688,
      -0.5237677693367004,
      1.010079026222229,
      -0.4135303199291229,
      -0.397686630487442,
      -0.03219621628522873,
      0.21717418730258942,
      -1.0944048166275024,
      -0.11012141406536102,
      0.08301223814487457,
      -2.008296012878418,
      -0.7238502502441406,
      0.14683248102664948,
      0.09208101779222488,
      0.6449466943740845,
      0.5089194774627686,
      1.3381088972091675,
      0.2646026015281677,
      -1.1195160150527954,
      -0.6011582612991333
    ],
    [
      -0.8243703842163086,
      -0.44579631090164185,
      -1.294404149055481,
      0.4896388649940491,
      0.8455783128738403,
      0.4267158806324005,
      -0.5731651186943054,
      -1.2598224878311157,
      -1.375864028930664,
      0.07762795686721802,
      1.197042465209961,
      0.28590723872184753,
      0.5667867660522461,
      -0.32540714740753174,
      -1.650482177734375,
      1.1176526546478271,
      1.6686205863952637,
      0.452754408121109,
      -0.1743876039981842,
      -0.1614397168159485,
      -0.5121043920516968,
      -0.03299994766712189,
      0.628412663936615,
      0.2369920313358307,
      0.06889572739601135,
      0.24270065128803253,
      0.7561006546020508,
      -0.34170448780059814,
      0.17753282189369202,
      0.730381965637207,
      0.34287065267562866,
      -0.018428532406687737
    ],
    [
      0.9812233448028564,
      0.21919745206832886,
      0.20205162465572357,
      -0.05997277796268463,
      0.7734807133674622,
      0.296688437461853,
      0.6967388391494751,
      -0.8342912793159485,
      -0.7302821278572083,
      -0.17667751014232635,
      0.025567665696144104,
      0.744170069694519,
      0.03370106220245361,
      0.7702986598014832,
      0.587653636932373,
      -0.32209813594818115,
      0.6933642625808716,
      1.1903457641601562,
      0.1518450677394867,
      0.2971835136413574,
      -0.6999250650405884,
      0.5520725846290588,
      -0.673255443572998,
      -0.6442143321037292,
      1.6717948913574219,
      0.17323024570941925,
      0.3272843360900879,
      -0.3230212926864624,
      -1.2123301029205322,
      -0.547218918800354,
      -1.3180572986602783,
      -0.5193415284156799
    ],
    [
      0.9332947731018066,
      0.29384198784828186,
      -0.3997119069099426,
      1.191865086555481,
      -0.4668883681297302,
      -0.8530349135398865,
      0.028348028659820557,
      1.0576406717300415,
      0.21008190512657166,
      0.344449520111084,
      0.5838383436203003,
      1.600573182106018,
      -0.9010188579559326,
      -0.6870058178901672,
      -1.1672651767730713,
      -0.8085086345672607,
      1.0138026475906372,
      -0.6091037392616272,
      0.004079686477780342,
      -1.1873142719268799,
      -2.633009910583496,
      -0.40753018856048584,
      -1.4583330154418945,
      1.1586275100708008,
      -1.0814697742462158,
      0.6227129101753235,
      0.8733249306678772,
      1.020687460899353,
      0.6788621544837952,
      0.7763538956642151,
      0.07948167622089386,
      1.6528090238571167
    ],
    [
      -0.2524780333042145,
      0.1285962462425232,
      0.6588715314865112,
      -0.154114231467247,
      -0.06837794184684753,
      -1.0711873769760132,
      0.03325114771723747,
      0.6063397526741028,
      -0.33667683601379395,
      -0.3321526348590851,
      -0.1256483793258667,
      0.6400001049041748,
      0.09498543292284012,
      0.04379203915596008,
      0.7292236685752869,
      0.5224838256835938,
      0.4606609344482422,
      -1.3695838451385498,
      0.5912540555000305,
      0.09288876503705978,
      -0.8829252123832703,
      0.1557629406452179,
      -0.5895051956176758,
      -0.9475842118263245,
      0.5745509266853333,
      -0.36223238706588745,
      0.4863179922103882,
      -1.2495015859603882,
      -0.6135158538818359,
      2.238308906555176,
      0.3585934638977051,
      -0.28105631470680237
    ],
    [
      0.9074162840843201,
      2.025836706161499,
      -1.3335254192352295,
      0.5369792580604553,
      -0.2818076014518738,
      -0.23427601158618927,
      0.41590261459350586,
      0.5983190536499023,
      0.8433710932731628,
      0.13399457931518555,
      -0.27321311831474304,
      0.4913623034954071,
      -1.6184786558151245,
      -0.02522248402237892,
      0.38965076208114624,
      -1.5314677953720093,
      -0.12660391628742218,
      0.8209101557731628,
      1.0875194072723389,
      -0.8602073192596436,
      -0.8343921303749084,
      -0.4527696967124939,
      1.5915732383728027,
      0.09056729078292847,
      -1.347688913345337,
      0.24260292947292328,
      1.8596771955490112,
      1.1856107711791992,
      1.1402422189712524,
      -1.338958740234375,
      0.33774664998054504,
      -0.4784121811389923
    ],
    [
      0.4569231867790222,
      -0.42242908477783203,
      -0.26693418622016907,
      0.04661467671394348,
      1.5873216390609741,
      0.6064753532409668,
      -0.8796508312225342,
      0.40594977140426636,
      -1.6650725603103638,
      -1.5785670280456543,
      -0.39574891328811646,
      0.5438080430030823,
      1.49190092086792,
      -0.07741636782884598,
      -0.5318741202354431,
      0.10949663817882538,
      0.5036699175834656,
      1.254014015197754,
      0.23123544454574585,
      0.6337220072746277,
      1.9598472118377686,
      2.7237002849578857,
      -0.2803896963596344,
      0.08623342961072922,
      -1.0966895818710327,
      0.20323732495307922,
      0.7321581840515137,
      -1.3648765087127686,
      -0.30127742886543274,
      1.047837257385254,
      0.20117220282554626,
      0.15773649513721466
    ],
    [
      -0.17330002784729004,
      -0.32184523344039917,
      0.2879233658313751,
      -0.08364355564117432,
      1.114172339439392,
      0.6621176600456238,
      0.3609037697315216,
      0.5909072756767273,
      0.7774803042411804,
      -0.7891189455986023,
      -0.87322598695755,
      0.1979285031557083,
      -0.23580002784729004,
      0.4527135193347931,
      0.9537359476089478,
      0.3656838536262512,
      -1.356838583946228,
      1.1679139137268066,
      0.7735320329666138,
      0.6292559504508972,
      -0.6057118773460388,
      -1.1913681030273438,
      -0.24183131754398346,
      -0.36259108781814575,
      -0.9044250845909119,
      0.33786001801490784,
      0.3320801854133606,
      0.3481868505477905,
      0.6950817704200745,
      0.03534147888422012,
      0.5526719689369202,
      -0.9057207703590393
    ],
    [
      0.35351839661598206,
      1.4412293434143066,
      -0.02482023648917675,
      0.41580942273139954,
      -1.9489500522613525,
      0.45716357231140137,
      0.10058758407831192,
      -0.2677048146724701,
      0.38754624128341675,
      -0.10997205972671509,
      -0.17939552664756775,
      -1.375852108001709,
      -0.12589780986309052,
      1.1783301830291748,
      0.7619848251342773,
      -0.35392141342163086,
      0.17866668105125427,
      -0.4921238422393799,
      0.7160362601280212,
      1.2253942489624023,
      -1.278456449508667,
      0.5735551714897156,
      0.4085668921470642,
      -0.8248013257980347,
      1.0938876867294312,
      -0.14185260236263275,
      -1.5734913349151611,
      -0.3579624593257904,
      0.6384919881820679,
      -1.0543010234832764,
      -0.022886671125888824,
      -1.0689321756362915
    ],
    [
      -1.1540731191635132,
      -0.5733576416969299,
      0.001772664487361908,
      -0.5580527782440186,
      0.22002670168876648,
      -1.5219132900238037,
      0.09753026068210602,
      -0.6454728841781616,
      0.5570916533470154,
      -0.10931134223937988,
      -1.2820765972137451,
      -0.1958647221326828,
      0.725514829158783,
      1.1929528713226318,
      -0.2548019289970398,
      0.46132245659828186,
      1.034746766090393,
      1.0489658117294312,
      -1.3216179609298706,
      -0.37135228514671326,
      0.8488240242004395,
      -0.24384835362434387,
      -0.6450626254081726,
      1.1850978136062622,
      0.6485152244567871,
      0.4354568421840668,
      0.05002348870038986,
      0.32129302620887756,
      0.39840906858444214,
      -0.19848330318927765,
      -0.19157031178474426,
      -0.5947980284690857
    ],
    [
      1.6061415672302246,
      -0.5598215460777283,
      -0.555114209651947,
      -0.0411374494433403,
      -0.43439868092536926,
      0.8325923681259155,
      0.0864919126033783,
      0.5952854156494141,
      -1.0475016832351685,
      0.37114623188972473,
      0.3761261999607086,
      0.2930011749267578,
      0.2769838571548462,
      -0.9585217237472534,
      -0.029706908389925957,
      -1.156981110572815,
      0.6026253700256348,
      0.946498453617096,
      0.5679702758789062,
      0.06753826886415482,
      0.16659153997898102,
      -0.0826488509774208,
      0.23328007757663727,
      0.05796770751476288,
      -0.04399678856134415,
      2.4304327964782715,
      -0.0792199969291687,
      0.16070124506950378,
      0.2691953480243683,
      -0.6650201082229614,
      0.7220932245254517,
      -0.6283121109008789
    ],
    [
      0.8427568078041077,
      -1.1254857778549194,
      -1.0072417259216309,
      -1.1001746654510498,
      0.24651573598384857,
      0.9886677265167236,
      1.047461986541748,
      0.9261599183082581,
      0.218464195728302,
      0.34868693351745605,
      0.40069425106048584,
      -0.8529623746871948,
      1.1746755838394165,
      0.3609254062175751,
      0.7281320095062256,
      -0.8435447812080383,
      0.7959277629852295,
      -0.3175572156906128,
      1.6447991132736206,
      0.8156889081001282,
      -0.9547314047813416,
      1.542659878730774,
      -0.9254383444786072,
      -0.26865264773368835,
      -0.15945102274417877,
      2.0267744064331055,
      -1.9840391874313354,
      0.34036964178085327,
      -0.2701570391654968,
      -1.1405590772628784,
      1.227515459060669,
      -1.273192048072815
    ],
    [
      0.6397565603256226,
      0.30518653988838196,
      0.3987222909927368,
      1.2755887508392334,
      0.09276367723941803,
      -0.9319092631340027,
      0.3785223066806793,
      -0.2828475534915924,
      -0.21431633830070496,
      -0.45758095383644104,
      -0.8596467971801758,
      0.1489585041999817,
      1.559740662574768,
      1.3788293600082397,
      -0.5683044791221619,
      -2.3054373264312744,
      0.25923386216163635,
      0.873512327671051,
      0.004476752132177353,
      -0.5627244710922241,
      -1.2681012153625488,
      0.29005926847457886,
      0.11279886960983276,
      -0.7296880483627319,
      -0.1442849040031433,
      -0.5598419904708862,
      1.1293405294418335,
      0.2703041136264801,
      -1.4255938529968262,
      1.6781847476959229,
      -0.0663083866238594,
      -0.20797406136989594
    ],
    [
      -0.026977766305208206,
      -0.7241809964179993,
      0.241940438747406,
      -0.15050028264522552,
      0.6795799732208252,
      -0.7689778804779053,
      1.2948708534240723,
      0.06708820164203644,
      0.47790902853012085,
      -0.8913061618804932,
      0.8411431908607483,
      0.11609727144241333,
      -0.06732304394245148,
      0.46298128366470337,
      0.5298133492469788,
      0.45697152614593506,
      -0.7150859832763672,
      0.15982337296009064,
      0.14325930178165436,
      1.4503360986709595,
      1.0887987613677979,
      -0.7909867763519287,
      0.6821514368057251,
      0.555284321308136,
      0.7510634660720825,
      0.5827435851097107,
      -0.04385128617286682,
      -1.0952908992767334,
      -0.11081472039222717,
      -0.5175274014472961,
      0.5710729360580444,
      0.6405558586120605
    ],
    [
      0.6633261442184448,
      0.16479766368865967,
      -1.5221244096755981,
      -1.405619502067566,
      0.9084317684173584,
      -0.8677400350570679,
      0.8955409526824951,
      -0.7213156223297119,
      -0.17361506819725037,
      0.29074564576148987,
      0.6167303323745728,
      0.28612205386161804,
      0.0493970587849617,
      1.2267521619796753,
      0.4976024627685547,
      0.8147090077400208,
      1.5870267152786255,
      0.614765465259552,
      -0.6265184283256531,
      1.1095669269561768,
      1.395298957824707,
      0.014485467225313187,
      0.9348085522651672,
      0.3764796853065491,
      0.361554354429245,
      -1.443723440170288,
      -0.8860451579093933,
      -0.039870746433734894,
      0.5591934323310852,
      0.20654267072677612,
      0.4269963502883911,
      1.341878056526184
    ],
    [
      -2.321455240249634,
      -0.19345976412296295,
      0.10251469165086746,
      0.5083510279655457,
      0.41102322936058044,
      -0.6494888067245483,
      -0.5216524004936218,
      0.33022743463516235,
      1.3310160636901855,
      -0.24479378759860992,
      0.27482250332832336,
      -0.11425004154443741,
      2.9333741664886475,
      -0.41620004177093506,
      -0.16912312805652618,
      0.9410433769226074,
      -0.44468215107917786,
      1.2733721733093262,
      0.19465278089046478,
      0.9267690777778625,
      1.1207128763198853,
      -0.15762731432914734,
      -0.7562881112098694,
      0.2633088231086731,
      0.1392444521188736,
      0.1818743497133255,
      -1.0634205341339111,
      -0.6590642929077148,
      -1.208243727684021,
      -0.8261449933052063,
      -0.06675457954406738,
      1.0817805528640747
    ],
    [
      -0.30304378271102905,
      -0.2805495858192444,
      -0.8799581527709961,
      -1.1131949424743652,
      -0.1604100912809372,
      -0.08386293053627014,
      0.31755009293556213,
      0.3634987473487854,
      -1.74056875705719,
      0.13270914554595947,
      -1.215440273284912,
      -1.8260910511016846,
      -0.8220708966255188,
      -1.2994755506515503,
      -1.5006853342056274,
      -0.006097268313169479,
      -0.12434376776218414,
      0.872874915599823,
      0.14361535012722015,
      -0.009636592119932175,
      -0.10943104326725006,
      2.2770535945892334,
      0.09462853521108627,
      -0.4828592836856842,
      -1.1021732091903687,
      -1.0491437911987305,
      0.05226028710603714,
      0.3610709309577942,
      0.45056357979774475,
      -0.6450198888778687,
      1.0409454107284546,
      -1.4445194005966187
    ],
    [
      -0.7599433660507202,
      -0.0938568115234375,
      -0.4066040813922882,
      1.1638988256454468,
      -0.8028970956802368,
      0.05920373275876045,
      1.3218579292297363,
      1.034760594367981,
      -0.2905159890651703,
      -0.32174956798553467,
      0.49929624795913696,
      -0.33608919382095337,
      0.699106752872467,
      -0.19704458117485046,
      0.5479609370231628,
      0.9940754771232605,
      0.3199160695075989,
      0.35966867208480835,
      0.35271668434143066,
      -1.4609309434890747,
      0.08337385952472687,
      0.6227079629898071,
      -0.794640064239502,
      1.6558308601379395,
      -0.4552011489868164,
      0.04601343721151352,
      1.0130529403686523,
      -0.1310504525899887,
      0.3660706877708435,
      0.2835405468940735,
      -0.22961974143981934,
      -0.044542938470840454
    ],
    [
      -0.03869117796421051,
      1.1973844766616821,
      0.11884865164756775,
      -0.851237952709198,
      -1.0058817863464355,
      -1.4502191543579102,
      0.5302185416221619,
      1.7402567863464355,
      -1.207263708114624,
      1.1169359683990479,
      0.19026952981948853,
      0.9475432634353638,
      -1.3861165046691895,
      -1.4509989023208618,
      1.2836602926254272,
      0.4935533106327057,
      -0.21394096314907074,
      -0.1322164535522461,
      -0.057647790759801865,
      -0.777166485786438,
      -1.3281936645507812,
      -0.7494279146194458,
      -1.0195516347885132,
      0.21353751420974731,
      -0.027641920372843742,
      0.2539743483066559,
      0.8972870707511902,
      1.5613166093826294,
      2.018890380859375,
      -0.8253613114356995,
      -0.5821064114570618,
      0.42423757910728455
    ]
  ],
  "b2": [
    [
      0.4997510015964508,
      0.6849408745765686,
      -0.5166833996772766,
      -0.5438199043273926,
      0.04245367646217346,
      0.9522311687469482,
      0.6780416369438171,
      0.24127604067325592,
      0.20331528782844543,
      0.5312665700912476,
      -0.5664085149765015,
      -1.4231140613555908,
      0.25257569551467896,
      0.45156168937683105,
      -0.04086906462907791,
      0.13453635573387146,
      0.9031472206115723,
      -0.2231157124042511,
      0.0832807794213295,
      -0.44592055678367615,
      -1.342851161956787,
      -0.8913825750350952,
      -0.3592182695865631,
      0.4967752695083618,
      0.4195590615272522,
      -0.6763993501663208,
      -0.6820101141929626,
      0.6148536205291748,
      0.6622770428657532,
      -0.13320915400981903,
      -1.684122920036316,
      1.0034313201904297
    ]
  ],
  "w3": [
    [
      -0.18668530881404877,
      -0.49734753370285034
    ],
    [
      1.0670231580734253,
      -1.837709665298462
    ],
    [
      -0.7862043380737305,
      -0.06525736302137375
    ],
    [
      1.4116408824920654,
      -1.0759984254837036
    ],
    [
      -1.2795653343200684,
      1.881765604019165
    ],
    [
      0.6157162189483643,
      -0.0496642142534256
    ],
    [
      -0.00023863092064857483,
      -1.7570806741714478
    ],
    [
      -0.5756799578666687,
      0.30263519287109375
    ],
    [
      -0.3397558927536011,
      1.0002036094665527
    ],
    [
      0.994133472442627,
      -2.1342265605926514
    ],
    [
      -0.3937063217163086,
      -0.12615688145160675
    ],
    [
      1.2887457609176636,
      -0.9357156753540039
    ],
    [
      -1.6840015649795532,
      1.2795875072479248
    ],
    [
      -0.05189259350299835,
      1.3170619010925293
    ],
    [
      0.0007153187762014568,
      1.0232042074203491
    ],
    [
      -2.1763412952423096,
      1.7861326932907104
    ],
    [
      0.3061898946762085,
      -1.3413195610046387
    ],
    [
      1.5369179248809814,
      0.37679463624954224
    ],
    [
      0.007630649954080582,
      0.3075123131275177
    ],
    [
      -1.1886327266693115,
      2.004488229751587
    ],
    [
      -2.7482457160949707,
      1.530479907989502
    ],
    [
      0.42318975925445557,
      -0.19954752922058105
    ],
    [
      0.24533411860466003,
      -0.9425519704818726
    ],
    [
      0.5764949321746826,
      0.027056463062763214
    ],
    [
      -0.13775143027305603,
      1.5532833337783813
    ],
    [
      -0.2957027554512024,
      -0.789332389831543
    ],
    [
      2.170182466506958,
      -2.751296281814575
    ],
    [
      1.0557210445404053,
      -2.7281720638275146
    ],
    [
      0.6644899845123291,
      -0.6779881119728088
    ],
    [
      -1.1815227270126343,
      -0.9651116728782654
    ],
    [
      -0.4138445556163788,
      -0.41860243678092957
    ],
    [
      0.9993812441825867,
      -0.8030694723129272
    ]
  ],
  "b3": [
    [
      -0.34168893098831177,
      -1.7364280223846436
    ]
  ]
}
